<?xml version="1.0"?>
<opencv_storage>
<cascade>
  <stageType>BOOST</stageType>
  <featureType>LBP</featureType>
  <height>20</height>
  <width>20</width>
  <stageParams>
    <boostType>GAB</boostType>
    <minHitRate>9.9900001287460327e-001</minHitRate>
    <maxFalseAlarm>5.0000000000000000e-001</maxFalseAlarm>
    <weightTrimRate>9.4999999999999996e-001</weightTrimRate>
    <maxDepth>1</maxDepth>
    <maxWeakCount>100</maxWeakCount></stageParams>
  <featureParams>
    <maxCatCount>256</maxCatCount>
    <featSize>1</featSize></featureParams>
  <stageNum>14</stageNum>
  <stages>
    <!-- stage 0 -->
    <_>
      <maxWeakCount>7</maxWeakCount>
      <stageThreshold>-2.9519531726837158e+000</stageThreshold>
      <weakClassifiers>
        <_>
          <internalNodes>
            0 -1 42 -131074 -1 -17 -1 -1 -1 -1 -1</internalNodes>
          <leafValues>
            -9.4553941488265991e-001 -4.4020257890224457e-002</leafValues></_>
        <_>
          <internalNodes>
            0 -1 57 -168698680 -524289 -13369565 -13107209 -2109746 -1
            -4177 -1</internalNodes>
          <leafValues>
            -8.4324395656585693e-001 1.1093177646398544e-001</leafValues></_>
        <_>
          <internalNodes>
            0 -1 177 -11534544 -547389693 -1813194498 1362581307 -516
            34602831 256888060 1132453119</internalNodes>
          <leafValues>
            -8.1556046009063721e-001 3.0205196142196655e-001</leafValues></_>
        <_>
          <internalNodes>
            0 -1 20 -824185138 -4521994 -872557576 1393753946
            -2038452225 1164932943 124213247 1463547739</internalNodes>
          <leafValues>
            -7.3188340663909912e-001 3.9614552259445190e-001</leafValues></_>
        <_>
          <internalNodes>
            0 -1 173 -9185 2004818743 -16785665 1350303575 -678766002
            -1058029 -555810817 -1306853569</internalNodes>
          <leafValues>
            -5.8427792787551880e-001 5.1821303367614746e-001</leafValues></_>
        <_>
          <internalNodes>
            0 -1 32 -303873 2080332799 -667222337 976370486 -8495538
            2138405499 -631046145 -8945665</internalNodes>
          <leafValues>
            -5.3846979141235352e-001 5.6741195917129517e-001</leafValues></_>
        <_>
          <internalNodes>
            0 -1 186 -1078198277 -1884291096 -76285967 -579340843
            -1074007041 100006651 234557936 -1644167169</internalNodes>
          <leafValues>
            -5.6270796060562134e-001 5.5284619331359863e-001</leafValues></_></weakClassifiers></_>
    <!-- stage 1 -->
    <_>
      <maxWeakCount>8</maxWeakCount>
      <stageThreshold>-2.6254391670227051e+000</stageThreshold>
      <weakClassifiers>
        <_>
          <internalNodes>
            0 -1 140 -201326593 -34817 -214761473 -32769 -262213
            -8438721 -12845125 -1</internalNodes>
          <leafValues>
            -8.8235682249069214e-001 -8.2867555320262909e-002</leafValues></_>
        <_>
          <internalNodes>
            0 -1 55 -822153694 -8923785 1231965525 1599587711 -922746881
            -864289409 1606139903 456857087</internalNodes>
          <leafValues>
            -8.5019999742507935e-001 9.0024825185537338e-003</leafValues></_>
        <_>
          <internalNodes>
            0 -1 71 -1376802 1936872926 -537919522 1933733370
            -1850739240 -1074044929 354407820 526335951</internalNodes>
          <leafValues>
            -7.4997746944427490e-001 2.3698827624320984e-001</leafValues></_>
        <_>
          <internalNodes>
            0 -1 155 1069111800 -854975512 1073428948 1534685296
            -1526794244 -1948353064 -142806020 -536875016</internalNodes>
          <leafValues>
            -5.7592493295669556e-001 3.6480036377906799e-001</leafValues></_>
        <_>
          <internalNodes>
            0 -1 129 -1457152 -574761251 -218107169 -218107139
            -1915041590 -336864337 -566601729 -671296003</internalNodes>
          <leafValues>
            -4.9654334783554077e-001 4.2954558134078979e-001</leafValues></_>
        <_>
          <internalNodes>
            0 -1 15 -824267058 -15138882 1408259037 1360033594
            -1362121985 1998026511 63899647 1463539707</internalNodes>
          <leafValues>
            -7.0120567083358765e-001 2.9533454775810242e-001</leafValues></_>
        <_>
          <internalNodes>
            0 -1 39 -357915990 -154230536 -201329677 -10763 -201342981
            -151031831 -143394825 -134801955</internalNodes>
          <leafValues>
            -5.4770040512084961e-001 3.6121350526809692e-001</leafValues></_>
        <_>
          <internalNodes>
            0 -1 198 -536871104 -1363190525 2055930928 -354452113
            -1153700916 -1349591873 854232284 -75772417</internalNodes>
          <leafValues>
            -4.7151443362236023e-001 3.9317819476127625e-001</leafValues></_></weakClassifiers></_>
    <!-- stage 2 -->
    <_>
      <maxWeakCount>10</maxWeakCount>
      <stageThreshold>-2.8738839626312256e+000</stageThreshold>
      <weakClassifiers>
        <_>
          <internalNodes>
            0 -1 2 -269746181 -5243960 -4194317 -10485771 -939524097
            -5244161 1199044599 -134259203</internalNodes>
          <leafValues>
            -9.3137478828430176e-001 -5.4836523532867432e-001</leafValues></_>
        <_>
          <internalNodes>
            0 -1 175 -493 -9217 -553648385 -251658241 -19213694
            -141034873 -18939905 -1213530113</internalNodes>
          <leafValues>
            -7.2883874177932739e-001 8.9558877050876617e-002</leafValues></_>
        <_>
          <internalNodes>
            0 -1 98 2004346348 -2097153 -147783885 -13107201 -64091
            -47313 -13107413 -34603009</internalNodes>
          <leafValues>
            -6.0478788614273071e-001 3.4758874773979187e-001</leafValues></_>
        <_>
          <internalNodes>
            0 -1 28 -83993426 -107265 -1304789470 -605397512 -67469814
            -368769 1880260403 -294913</internalNodes>
          <leafValues>
            -5.3615373373031616e-001 3.6774024367332458e-001</leafValues></_>
        <_>
          <internalNodes>
            0 -1 24 -16883746 -548541105 -1073779970 -816985521
            2130476991 -119734433 -83920642 -84082977</internalNodes>
          <leafValues>
            -5.1962518692016602e-001 3.9028927683830261e-001</leafValues></_>
        <_>
          <internalNodes>
            0 -1 183 -1078198288 1202187978 -1088689672 1979685564
            -1145308176 2320352 -1145323524 939507454</internalNodes>
          <leafValues>
            -6.1628431081771851e-001 3.2840448617935181e-001</leafValues></_>
        <_>
          <internalNodes>
            0 -1 50 -219194113 -67478278 1586659071 -202213378 -79758770
            2138554138 -6619137 -52486</internalNodes>
          <leafValues>
            -4.3707266449928284e-001 4.1041368246078491e-001</leafValues></_>
        <_>
          <internalNodes>
            0 -1 88 -899102720 -10781863 -251857931 1904205813
            -807413505 -272637956 1392440319 2062349813</internalNodes>
          <leafValues>
            -5.3986930847167969e-001 3.3726307749748230e-001</leafValues></_>
        <_>
          <internalNodes>
            0 -1 196 -10237 -867214921 1994391151 1149225975 -88157630
            -1721772203 -335921 -1851064321</internalNodes>
          <leafValues>
            -4.8996773362159729e-001 3.6046919226646423e-001</leafValues></_>
        <_>
          <internalNodes>
            0 -1 74 -290789190 -7627040 -4791311 -14821679 -1355956241
            -154150260 -2028537871 -83822763</internalNodes>
          <leafValues>
            -4.7251009941101074e-001 3.6605456471443176e-001</leafValues></_></weakClassifiers></_>
    <!-- stage 3 -->
    <_>
      <maxWeakCount>12</maxWeakCount>
      <stageThreshold>-2.7945082187652588e+000</stageThreshold>
      <weakClassifiers>
        <_>
          <internalNodes>
            0 -1 159 1610612733 2046820351 -603979777 -539099139
            2147450687 -33587201 -205 -34212873</internalNodes>
          <leafValues>
            -9.2325061559677124e-001 -5.5832225084304810e-001</leafValues></_>
        <_>
          <internalNodes>
            0 -1 97 -352391376 -8405201 -1 -1082675393 1291841535 -261
            233278975 -805851137</internalNodes>
          <leafValues>
            -7.7986019849777222e-001 -4.7374319285154343e-002</leafValues></_>
        <_>
          <internalNodes>
            0 -1 180 -11550944 -145285369 826036474 858749211 -2101764
            21983183 1162724604 1132453118</internalNodes>
          <leafValues>
            -7.6413476467132568e-001 1.4827619493007660e-001</leafValues></_>
        <_>
          <internalNodes>
            0 -1 172 -536880897 -201629701 -251700541 273939313 -7415089
            -2097461 -550569985 -220529669</internalNodes>
          <leafValues>
            -3.4920498728752136e-001 4.8178848624229431e-001</leafValues></_>
        <_>
          <internalNodes>
            0 -1 4 -353465686 -17168328 -202116621 -553795 -16778241
            -185553025 -138942465 925832541</internalNodes>
          <leafValues>
            -5.7990300655364990e-001 2.7994817495346069e-001</leafValues></_>
        <_>
          <internalNodes>
            0 -1 95 -1080133378 -1677805582 -37587492 -202334728
            -1346445620 -1425113782 1979380988 1340006399</internalNodes>
          <leafValues>
            -4.7881442308425903e-001 3.4030747413635254e-001</leafValues></_>
        <_>
          <internalNodes>
            0 -1 131 503307692 895876849 -1342179397 1073216497
            233770415 -1107447841 -1111539925 -2002714829</internalNodes>
          <leafValues>
            -5.5622851848602295e-001 2.8572562336921692e-001</leafValues></_>
        <_>
          <internalNodes>
            0 -1 187 -1074003969 -1915749400 1606156243 -570556451
            -1896379441 217026042 -579084289 -807411713</internalNodes>
          <leafValues>
            -3.6443412303924561e-001 4.6372237801551819e-001</leafValues></_>
        <_>
          <internalNodes>
            0 -1 16 -357831958 -301282592 -217055261 -547 -1097073858
            -368515202 1060633399 -8956419</internalNodes>
          <leafValues>
            -4.6347314119338989e-001 3.4351834654808044e-001</leafValues></_>
        <_>
          <internalNodes>
            0 -1 93 -5242916 -77442566 -1310754 1929527078 -1853623820
            396328671 277608220 521891839</internalNodes>
          <leafValues>
            -6.3322687149047852e-001 2.3144884407520294e-001</leafValues></_>
        <_>
          <internalNodes>
            0 -1 168 -24576 -134234113 -84083969 -251658753 -67196784
            -1207959817 -608505875 -1279614977</internalNodes>
          <leafValues>
            -4.9747958779335022e-001 2.8708311915397644e-001</leafValues></_>
        <_>
          <internalNodes>
            0 -1 11 1408761638 -1296912477 -973122315 -838931210
            -1080066113 -1414795349 -570433611 -897257610</internalNodes>
          <leafValues>
            -4.4507935643196106e-001 3.2927364110946655e-001</leafValues></_></weakClassifiers></_>
    <!-- stage 4 -->
    <_>
      <maxWeakCount>12</maxWeakCount>
      <stageThreshold>-2.9202444553375244e+000</stageThreshold>
      <weakClassifiers>
        <_>
          <internalNodes>
            0 -1 132 1574830079 -131105 -656393 -655369 -539009185 -209
            -3209 -131081</internalNodes>
          <leafValues>
            -9.0545922517776489e-001 -4.0143698453903198e-001</leafValues></_>
        <_>
          <internalNodes>
            0 -1 10 2135228415 789557119 -50791425 -352345345 -131073
            -1342189601 -50496001 -117572353</internalNodes>
          <leafValues>
            -7.0537006855010986e-001 7.1159020066261292e-002</leafValues></_>
        <_>
          <internalNodes>
            0 -1 62 -42795808 1060208416 -258 -1087111365 1157393656
            2147483519 1291797759 1685585267</internalNodes>
          <leafValues>
            -7.8884780406951904e-001 1.6173195838928223e-001</leafValues></_>
        <_>
          <internalNodes>
            0 -1 73 398088446 -71402764 1349704446 -537734602 1065286730
            1064302415 779156218 -268435457</internalNodes>
          <leafValues>
            -5.1776903867721558e-001 2.9949200153350830e-001</leafValues></_>
        <_>
          <internalNodes>
            0 -1 157 -1438995724 -33575970 -82116609 1460617215
            -876937456 -11141355 2067463098 51063807</internalNodes>
          <leafValues>
            -5.3950363397598267e-001 3.2118254899978638e-001</leafValues></_>
        <_>
          <internalNodes>
            0 -1 45 -1358983201 1583336415 -134251521 710869727
            2021589085 -98762803 -79725832 -92669198</internalNodes>
          <leafValues>
            -3.8577786087989807e-001 4.2287686467170715e-001</leafValues></_>
        <_>
          <internalNodes>
            0 -1 30 -83960066 -219003650 -134320138 2145279454
            1380956142 2001139276 2013249466 2145336746</internalNodes>
          <leafValues>
            -5.5417495965957642e-001 3.0671486258506775e-001</leafValues></_>
        <_>
          <internalNodes>
            0 -1 170 -1148452880 1135082442 1073738736 -536903946
            -1078283280 126549992 -1077937224 -1073758470</internalNodes>
          <leafValues>
            -4.8998847603797913e-001 3.0886849761009216e-001</leafValues></_>
        <_>
          <internalNodes>
            0 -1 200 -1078198560 -275815422 782191864 1115148691
            -1145308232 -272634379 1051458300 1006632955</internalNodes>
          <leafValues>
            -5.0852221250534058e-001 3.0275329947471619e-001</leafValues></_>
        <_>
          <internalNodes>
            0 -1 89 -16847184 -159918731 1596251997 -42523137
            -1996570665 -864831113 1308605951 389764607</internalNodes>
          <leafValues>
            -5.0995647907257080e-001 2.9615172743797302e-001</leafValues></_>
        <_>
          <internalNodes>
            0 -1 25 -286339446 -2206214 1755024386 1395144117 -290490777
            -8693936 -1485062814 1602975167</internalNodes>
          <leafValues>
            -5.2645552158355713e-001 2.7737393975257874e-001</leafValues></_>
        <_>
          <internalNodes>
            0 -1 124 -1968224505 -1359161617 1874762749 -16850468
            2143256437 -1078235908 -538247180 -1093208604</internalNodes>
          <leafValues>
            -5.2442467212677002e-001 2.7310657501220703e-001</leafValues></_></weakClassifiers></_>
    <!-- stage 5 -->
    <_>
      <maxWeakCount>14</maxWeakCount>
      <stageThreshold>-3.1638464927673340e+000</stageThreshold>
      <weakClassifiers>
        <_>
          <internalNodes>
            0 -1 121 -9 -3081 -1 -13 -552599617 -132171 -538969285 -2061</internalNodes>
          <leafValues>
            -8.8483619689941406e-001 -3.5498422384262085e-001</leafValues></_>
        <_>
          <internalNodes>
            0 -1 75 724205439 -1346392065 -13107201 -1358975255
            938999807 -1342197761 1979056125 -319427107</internalNodes>
          <leafValues>
            -7.2943413257598877e-001 -6.5785944461822510e-002</leafValues></_>
        <_>
          <internalNodes>
            0 -1 112 444497636 477298615 -1146914 1060814778 2105478645
            2092154103 503258360 -1891956677</internalNodes>
          <leafValues>
            -6.5557223558425903e-001 1.7057140171527863e-001</leafValues></_>
        <_>
          <internalNodes>
            0 -1 9 -353374485 -359667488 -549462029 -14688259 52673535
            -187710517 -411568137 -134259235</internalNodes>
          <leafValues>
            -4.5074433088302612e-001 3.0476182699203491e-001</leafValues></_>
        <_>
          <internalNodes>
            0 -1 195 -4204512 -1360274294 -295772582 -286269361
            531287244 1073414095 -415564289 520804751</internalNodes>
          <leafValues>
            -5.2595227956771851e-001 2.8928840160369873e-001</leafValues></_>
        <_>
          <internalNodes>
            0 -1 96 1065373916 -6881296 -1107919364 -11380738 -52537650
            -1891234998 1371403772 1566832127</internalNodes>
          <leafValues>
            -5.2199047803878784e-001 2.7006128430366516e-001</leafValues></_>
        <_>
          <internalNodes>
            0 -1 22 -825307442 -543621153 1400459708 1595572030
            -1504974865 1732935502 117035930 1997268794</internalNodes>
          <leafValues>
            -6.0676831007003784e-001 2.2341671586036682e-001</leafValues></_>
        <_>
          <internalNodes>
            0 -1 150 231669757 2143125407 -198731 -1611358209
            -1610645697 -1077969091 -335568345 -101125963</internalNodes>
          <leafValues>
            -3.8681423664093018e-001 3.3616080880165100e-001</leafValues></_>
        <_>
          <internalNodes>
            0 -1 87 -290919936 -15770104 1406071795 968744959 -810628965
            -363858629 863827959 1379452877</internalNodes>
          <leafValues>
            -5.5701029300689697e-001 2.3584835231304169e-001</leafValues></_>
        <_>
          <internalNodes>
            0 -1 32 -1090321 2080053567 1354691775 1059074227 -294461874
            2138436479 -664076677 -10256385</internalNodes>
          <leafValues>
            -4.2760807275772095e-001 3.1146693229675293e-001</leafValues></_>
        <_>
          <internalNodes>
            0 -1 90 -294654432 -147371529 1152051037 2004327935
            -1934440457 -1502086797 465227327 322114047</internalNodes>
          <leafValues>
            -6.3076752424240112e-001 1.9988176226615906e-001</leafValues></_>
        <_>
          <internalNodes>
            0 -1 186 -1145308197 -844103704 2138300401 -545262123
            -1275141121 1308588281 150735064 -1644167937</internalNodes>
          <leafValues>
            -4.2443791031837463e-001 3.0103793740272522e-001</leafValues></_>
        <_>
          <internalNodes>
            0 -1 14 -290567990 2139839872 1324088039 -541336067
            -273781182 2141149693 -278799613 1330594253</internalNodes>
          <leafValues>
            -5.1167601346969604e-001 2.3326548933982849e-001</leafValues></_>
        <_>
          <internalNodes>
            0 -1 160 -4458512 1379923926 -1073742916 1996435134
            -1623197776 30334940 1057751004 513510076</internalNodes>
          <leafValues>
            -5.9132075309753418e-001 1.9237008690834045e-001</leafValues></_></weakClassifiers></_>
    <!-- stage 6 -->
    <_>
      <maxWeakCount>17</maxWeakCount>
      <stageThreshold>-3.0152382850646973e+000</stageThreshold>
      <weakClassifiers>
        <_>
          <internalNodes>
            0 -1 38 -4465153 -4202497 -4468817 -4194385 -4464641
            -4194305 -12289 -1</internalNodes>
          <leafValues>
            -8.7877166271209717e-001 -2.5835609436035156e-001</leafValues></_>
        <_>
          <internalNodes>
            0 -1 68 -13601 -13345 -218104833 1138721503 -71303267
            -2498595 -71565313 -79953953</internalNodes>
          <leafValues>
            -5.7937741279602051e-001 2.2722375392913818e-001</leafValues></_>
        <_>
          <internalNodes>
            0 -1 102 -286609412 1002110907 -129 1060876222 1358839550
            -74753 -50438146 -588034</internalNodes>
          <leafValues>
            -5.4174065589904785e-001 2.5881299376487732e-001</leafValues></_>
        <_>
          <internalNodes>
            0 -1 181 -3145984 1395596551 1509801726 323930364 -11534387
            54877517 257424636 1125108988</internalNodes>
          <leafValues>
            -6.5555310249328613e-001 1.8081617355346680e-001</leafValues></_>
        <_>
          <internalNodes>
            0 -1 1 -12846085 -7341685 1861710563 -612377633 864024063
            -7340310 1079144695 -674479883</internalNodes>
          <leafValues>
            -3.6173993349075317e-001 3.7296819686889648e-001</leafValues></_>
        <_>
          <internalNodes>
            0 -1 51 -1122306 1884445183 -68157988 575032782 -1649150500
            929005563 215733256 526339487</internalNodes>
          <leafValues>
            -6.6935729980468750e-001 1.9476397335529327e-001</leafValues></_>
        <_>
          <internalNodes>
            0 -1 204 -1147409670 248496840 335615955 1564997597
            149660667 147792106 239327167 -1949305093</internalNodes>
          <leafValues>
            -3.7062314152717590e-001 3.3436009287834167e-001</leafValues></_>
        <_>
          <internalNodes>
            0 -1 79 -100547024 -20780298 1413390800 -20001088 -568265285
            -737320714 1409515959 1461666267</internalNodes>
          <leafValues>
            -4.6456286311149597e-001 2.6706549525260925e-001</leafValues></_>
        <_>
          <internalNodes>
            0 -1 117 1728047103 -53265 -231539713 1948694527 -50387915
            -18938821 -4653256 -869335298</internalNodes>
          <leafValues>
            -2.9876554012298584e-001 4.2558744549751282e-001</leafValues></_>
        <_>
          <internalNodes>
            0 -1 33 -3189633 2064846867 151326455 1528638807 -16489982
            2068978688 1480916991 -14682245</internalNodes>
          <leafValues>
            -3.3704933524131775e-001 3.7679532170295715e-001</leafValues></_>
        <_>
          <internalNodes>
            0 -1 147 -650510336 -536914017 -83886113 1895558653
            -1360094213 -339751218 -1635983393 -1693956643</internalNodes>
          <leafValues>
            -4.4588515162467957e-001 2.8100851178169250e-001</leafValues></_>
        <_>
          <internalNodes>
            0 -1 76 -722032976 -555038484 -1864434178 1575998924
            -138956545 -672662873 1431556287 1460080799</internalNodes>
          <leafValues>
            -4.2676046490669250e-001 2.7661639451980591e-001</leafValues></_>
        <_>
          <internalNodes>
            0 -1 27 -353441046 -288430770 711607906 -1040127378
            -278665705 -76580334 1198969155 -10487813</internalNodes>
          <leafValues>
            -5.5329847335815430e-001 2.1087659895420074e-001</leafValues></_>
        <_>
          <internalNodes>
            0 -1 104 1068498879 2074244083 2147480442 1073701874
            -3145805 -3801115 118256395 -269618189</internalNodes>
          <leafValues>
            -3.0791711807250977e-001 3.9480841159820557e-001</leafValues></_>
        <_>
          <internalNodes>
            0 -1 193 -205857538 -349446422 410962687 36395838 -104953110
            -1164035558 -96821329 -1174209765</internalNodes>
          <leafValues>
            -4.1831058263778687e-001 2.9710471630096436e-001</leafValues></_>
        <_>
          <internalNodes>
            0 -1 128 -1082434852 -340903064 -1279068708 1475509500
            -230736136 183465551 -1271283716 1058791231</internalNodes>
          <leafValues>
            -5.0859415531158447e-001 2.3382709920406342e-001</leafValues></_>
        <_>
          <internalNodes>
            0 -1 158 -608196096 -67131417 -222826243 -1049674290
            -67458375 -1241539585 -539060801 -945133665</internalNodes>
          <leafValues>
            -3.8178625702857971e-001 2.9955604672431946e-001</leafValues></_></weakClassifiers></_>
    <!-- stage 7 -->
    <_>
      <maxWeakCount>17</maxWeakCount>
      <stageThreshold>-3.2848036289215088e+000</stageThreshold>
      <weakClassifiers>
        <_>
          <internalNodes>
            0 -1 41 -67371009 -4456529 -4097 -4177 -33554433 -1
            -587214849 -1</internalNodes>
          <leafValues>
            -8.7394034862518311e-001 -7.7561445534229279e-002</leafValues></_>
        <_>
          <internalNodes>
            0 -1 66 -584056833 -2049 -5349619 2147440437 -1114113
            -72853505 -284526801 -274139659</internalNodes>
          <leafValues>
            -6.1587065458297729e-001 1.2799082696437836e-001</leafValues></_>
        <_>
          <internalNodes>
            0 -1 43 1002397679 -1146619985 -5316609 -1414537299
            -1174452273 -1146136577 -4307641 -1071266553</internalNodes>
          <leafValues>
            -4.6647459268569946e-001 3.1323042511940002e-001</leafValues></_>
        <_>
          <internalNodes>
            0 -1 5 -294720338 -6324317 1388049399 -1619034115 1206713343
            -8460521 1970796027 -1</internalNodes>
          <leafValues>
            -3.3029562234878540e-001 4.3656650185585022e-001</leafValues></_>
        <_>
          <internalNodes>
            0 -1 143 1073659060 1060320880 -1342177281 -1078460492
            1069483261 -32771 2147421438 -1380205382</internalNodes>
          <leafValues>
            -4.6490237116813660e-001 2.6598474383354187e-001</leafValues></_>
        <_>
          <internalNodes>
            0 -1 84 -429798707 -229219745 1142968157 2001142317
            -30365888 2136094213 2132852200 2135914399</internalNodes>
          <leafValues>
            -3.5938674211502075e-001 3.4557509422302246e-001</leafValues></_>
        <_>
          <internalNodes>
            0 -1 179 -941652700 -64001 175436016 827670463 -134218244
            8384495 1417147644 1107287534</internalNodes>
          <leafValues>
            -5.6423407793045044e-001 2.0816241204738617e-001</leafValues></_>
        <_>
          <internalNodes>
            0 -1 154 -1212483600 1139764802 -1074298884 939470522
            -1615137296 1334509514 -1078264840 536559290</internalNodes>
          <leafValues>
            -5.6283944845199585e-001 2.0534247159957886e-001</leafValues></_>
        <_>
          <internalNodes>
            0 -1 13 -216269829 -10502968 1615943121 -547361315
            1960771794 -88375560 356733171 -707574571</internalNodes>
          <leafValues>
            -3.4704989194869995e-001 3.2913562655448914e-001</leafValues></_>
        <_>
          <internalNodes>
            0 -1 35 -1690609163 -13688797 813694095 1563401727 -11118002
            1848980999 -630916417 -12894385</internalNodes>
          <leafValues>
            -3.6226010322570801e-001 3.1665933132171631e-001</leafValues></_>
        <_>
          <internalNodes>
            0 -1 21 -297006258 256217037 -352423942 -362864450
            1055723495 -19595361 2016760029 -118459823</internalNodes>
          <leafValues>
            -5.4953050613403320e-001 2.1700747311115265e-001</leafValues></_>
        <_>
          <internalNodes>
            0 -1 44 -2080723026 -10586762 305332083 1564006876 -79712702
            -552894627 -1151602377 2071958970</internalNodes>
          <leafValues>
            -4.4926837086677551e-001 2.3819030821323395e-001</leafValues></_>
        <_>
          <internalNodes>
            0 -1 115 -364910080 -6566982 2052059871 -219218435
            -879821061 -614730794 2126346175 2072704445</internalNodes>
          <leafValues>
            -4.3625894188880920e-001 2.5572130084037781e-001</leafValues></_>
        <_>
          <internalNodes>
            0 -1 198 -543162624 -268436149 2123045922 -153264861
            -1147412500 -1081181697 779787740 974882303</internalNodes>
          <leafValues>
            -4.6060416102409363e-001 2.3907428979873657e-001</leafValues></_>
        <_>
          <internalNodes>
            0 -1 60 1946124287 -1355108421 -33818625 -269488966
            1975205750 -1342197957 1354364415 -52484076</internalNodes>
          <leafValues>
            -2.4814713001251221e-001 4.7950565814971924e-001</leafValues></_>
        <_>
          <internalNodes>
            0 -1 142 503316479 637402367 -4194433 2113272309 503256891
            -33591361 -17613 -1732969545</internalNodes>
          <leafValues>
            -2.4672147631645203e-001 4.6240618824958801e-001</leafValues></_>
        <_>
          <internalNodes>
            0 -1 47 2080374651 998170495 2063561458 1056718386 985626493
            -596312201 1056782975 -1393164425</internalNodes>
          <leafValues>
            -3.6644494533538818e-001 3.2188290357589722e-001</leafValues></_></weakClassifiers></_>
    <!-- stage 8 -->
    <_>
      <maxWeakCount>15</maxWeakCount>
      <stageThreshold>-2.7265858650207520e+000</stageThreshold>
      <weakClassifiers>
        <_>
          <internalNodes>
            0 -1 6 1375469567 -1145328209 -570438145 -301994001 -1
            -4198465 -570425349 -1</internalNodes>
          <leafValues>
            -8.8982415199279785e-001 -4.6367999911308289e-001</leafValues></_>
        <_>
          <internalNodes>
            0 -1 109 -269555916 2004827943 -1 2139045695 -469785601 -1
            -1879593217 -1115705537</internalNodes>
          <leafValues>
            -7.5611150264739990e-001 -6.8683512508869171e-002</leafValues></_>
        <_>
          <internalNodes>
            0 -1 174 -126686468 -134767653 2134081535 1364435967
            -12913784 -176238629 2065891274 319531743</internalNodes>
          <leafValues>
            -4.5913606882095337e-001 2.4628855288028717e-001</leafValues></_>
        <_>
          <internalNodes>
            0 -1 83 -419511044 -565897133 710889215 1432177754
            -142624772 1987385912 528456606 1599029179</internalNodes>
          <leafValues>
            -4.1349014639854431e-001 2.9712370038032532e-001</leafValues></_>
        <_>
          <internalNodes>
            0 -1 81 -487674104 1929032699 -102530 2004023094 1157587942
            1425708799 1323258710 -705202622</internalNodes>
          <leafValues>
            -5.5341750383377075e-001 2.4434490501880646e-001</leafValues></_>
        <_>
          <internalNodes>
            0 -1 58 -1574206790 -1453828 -15 -1057063 -139739137
            -30419458 1987573619 -140573295</internalNodes>
          <leafValues>
            -4.6810758113861084e-001 2.3895317316055298e-001</leafValues></_>
        <_>
          <internalNodes>
            0 -1 103 -1079001292 250408949 1040153530 804447218
            -817299569 1876785141 -548539637 -890374159</internalNodes>
          <leafValues>
            -4.7879204154014587e-001 2.4495685100555420e-001</leafValues></_>
        <_>
          <internalNodes>
            0 -1 138 -671616222 -775665684 1035918831 500038796
            -739314251 298645932 -1353805937 534468091</internalNodes>
          <leafValues>
            -3.8461562991142273e-001 3.1067723035812378e-001</leafValues></_>
        <_>
          <internalNodes>
            0 -1 156 -501744 -539227554 2029966077 1348196981 -23151413
            -71398462 -628564033 -1068739187</internalNodes>
          <leafValues>
            -4.6089303493499756e-001 2.4144484102725983e-001</leafValues></_>
        <_>
          <internalNodes>
            0 -1 26 -294757686 -704884502 681204370 2095994330
            -296813046 -537978098 1288361507 1430222295</internalNodes>
          <leafValues>
            -5.3390705585479736e-001 1.9627191126346588e-001</leafValues></_>
        <_>
          <internalNodes>
            0 -1 201 -1078205702 -1046353944 -1264585056 16766167
            -1111493128 -1684289888 939260664 -1610627073</internalNodes>
          <leafValues>
            -3.9644804596900940e-001 2.7069807052612305e-001</leafValues></_>
        <_>
          <internalNodes>
            0 -1 56 867390973 -134381571 -1087701108 -138553379
            1006589951 -1140894345 -1171470579 -792602795</internalNodes>
          <leafValues>
            -2.7861502766609192e-001 3.9904022216796875e-001</leafValues></_>
        <_>
          <internalNodes>
            0 -1 107 -900934188 1929278846 -2023784620 1113212132
            121615860 1069250047 460035416 1057688991</internalNodes>
          <leafValues>
            -6.4462333917617798e-001 1.7396904528141022e-001</leafValues></_>
        <_>
          <internalNodes>
            0 -1 12 2130999422 788938607 -50634513 -1427132817
            2112716795 -1342177329 1425874815 947344453</internalNodes>
          <leafValues>
            -5.8416152000427246e-001 1.6471953690052032e-001</leafValues></_>
        <_>
          <internalNodes>
            0 -1 64 331196955 -525766 255295357 2000287736 -2122866113
            55584306 1162301576 1398471674</internalNodes>
          <leafValues>
            -3.7922802567481995e-001 2.7546229958534241e-001</leafValues></_></weakClassifiers></_>
    <!-- stage 9 -->
    <_>
      <maxWeakCount>18</maxWeakCount>
      <stageThreshold>-2.9670209884643555e+000</stageThreshold>
      <weakClassifiers>
        <_>
          <internalNodes>
            0 -1 105 -69469441 -67385090 1400074459 -786704133 -74778374
            -368328566 -82052101 -3154949</internalNodes>
          <leafValues>
            -8.7603396177291870e-001 -3.6027580499649048e-001</leafValues></_>
        <_>
          <internalNodes>
            0 -1 6 1375469567 -1145328209 -838873603 -301994001 -1
            -1346375761 -570425349 -3670049</internalNodes>
          <leafValues>
            -5.4864400625228882e-001 2.0211163163185120e-001</leafValues></_>
        <_>
          <internalNodes>
            0 -1 133 1598947327 -2228225 -131145 -1175339017 1599962895
            -4325445 -67112141 -320212237</internalNodes>
          <leafValues>
            -3.2299676537513733e-001 4.1615873575210571e-001</leafValues></_>
        <_>
          <internalNodes>
            0 -1 69 -67151652 -83991298 2061138671 2147239166 -25539058
            2138076756 -630136962 -8503298</internalNodes>
          <leafValues>
            -4.9522048234939575e-001 2.3614242672920227e-001</leafValues></_>
        <_>
          <internalNodes>
            0 -1 124 -1364260073 -1359022081 1073626109 -83954212
            -67158159 -270929 -536937548 -86083611</internalNodes>
          <leafValues>
            -4.5621511340141296e-001 2.3390038311481476e-001</leafValues></_>
        <_>
          <internalNodes>
            0 -1 78 -34546456 926023600 -262230 859307827 1291734218
            2113895167 1342131887 74874739</internalNodes>
          <leafValues>
            -7.7861344814300537e-001 1.5985202789306641e-001</leafValues></_>
        <_>
          <internalNodes>
            0 -1 37 -358047048 -6313272 -211877903 -10486283 -568610049
            -554530309 -147344393 -134783523</internalNodes>
          <leafValues>
            -4.0479099750518799e-001 2.5852262973785400e-001</leafValues></_>
        <_>
          <internalNodes>
            0 -1 94 532173016 -209830156 785022936 -537627656 532584526
            1062884430 141605112 -8454465</internalNodes>
          <leafValues>
            -4.7697395086288452e-001 2.2126133739948273e-001</leafValues></_>
        <_>
          <internalNodes>
            0 -1 17 -329339122 -135069858 301068664 1494810490
            -1968462401 2001108743 64718767 1461413726</internalNodes>
          <leafValues>
            -5.9083610773086548e-001 1.7637413740158081e-001</leafValues></_>
        <_>
          <internalNodes>
            0 -1 176 -32256 -671150337 -117712645 -788548865 -1758792720
            1908139767 -282329089 364640223</internalNodes>
          <leafValues>
            -4.9545758962631226e-001 2.0213353633880615e-001</leafValues></_>
        <_>
          <internalNodes>
            0 -1 184 -1078929152 -675742402 392131379 1464719038
            -1932150120 110669502 523825102 536788734</internalNodes>
          <leafValues>
            -4.1105639934539795e-001 2.4532616138458252e-001</leafValues></_>
        <_>
          <internalNodes>
            0 -1 114 -836728832 -145752208 -1694379553 1939692541
            -807405349 -814764266 1964831231 1938462156</internalNodes>
          <leafValues>
            -4.5662492513656616e-001 2.2031724452972412e-001</leafValues></_>
        <_>
          <internalNodes>
            0 -1 101 -13567920 -8351540 -1031895003 -748205352
            -1777276504 -745662260 1376769259 -685816631</internalNodes>
          <leafValues>
            -2.8652590513229370e-001 3.5138526558876038e-001</leafValues></_>
        <_>
          <internalNodes>
            0 -1 126 687110224 -665054112 253640779 1154302144
            -1709665632 -362119120 771815947 456065951</internalNodes>
          <leafValues>
            -3.9030790328979492e-001 2.5718039274215698e-001</leafValues></_>
        <_>
          <internalNodes>
            0 -1 146 326859516 1240431208 -1088948996 503161206
            -1210289480 1139701711 -96605700 -1610908065</internalNodes>
          <leafValues>
            -4.2792335152626038e-001 2.2606460750102997e-001</leafValues></_>
        <_>
          <internalNodes>
            0 -1 188 -203500290 -260429729 -636248337 1092194 -23537014
            -675607032 -1910836853 -2146241862</internalNodes>
          <leafValues>
            -3.9279288053512573e-001 2.5173076987266541e-001</leafValues></_>
        <_>
          <internalNodes>
            0 -1 144 -5573712 1021887377 -138480713 -1157725744 -7642703
            -137568771 1930359600 1308414192</internalNodes>
          <leafValues>
            -5.8215987682342529e-001 1.6356261074542999e-001</leafValues></_>
        <_>
          <internalNodes>
            0 -1 148 -72373760 2147401719 -218204929 -234889345
            -23152463 -659030091 2092609023 -676671505</internalNodes>
          <leafValues>
            -3.5828170180320740e-001 2.6402917504310608e-001</leafValues></_></weakClassifiers></_>
    <!-- stage 10 -->
    <_>
      <maxWeakCount>19</maxWeakCount>
      <stageThreshold>-2.9547817707061768e+000</stageThreshold>
      <weakClassifiers>
        <_>
          <internalNodes>
            0 -1 164 -3333 -2113527 828232191 -10497025 -72688982
            -16023416 -1153696801 -1</internalNodes>
          <leafValues>
            -8.7199890613555908e-001 -3.2433071732521057e-001</leafValues></_>
        <_>
          <internalNodes>
            0 -1 59 796856159 -268439553 -67637251 -352324884 794814463
            -1342205961 2137391101 -76153860</internalNodes>
          <leafValues>
            -5.9366804361343384e-001 2.7108483016490936e-002</leafValues></_>
        <_>
          <internalNodes>
            0 -1 48 -268451969 1811939327 788414326 780090935 436172671
            -1191874185 251608944 -1460373643</internalNodes>
          <leafValues>
            -5.1049661636352539e-001 1.8751636147499084e-001</leafValues></_>
        <_>
          <internalNodes>
            0 -1 100 2012702188 1065352703 -231538881 907214711
            -1007221339 -1080351349 -138546897 -468912603</internalNodes>
          <leafValues>
            -4.8116767406463623e-001 2.0873382687568665e-001</leafValues></_>
        <_>
          <internalNodes>
            0 -1 54 -285290750 -831363275 1476359445 1328549141 -393409
            -997949571 1438121855 353568025</internalNodes>
          <leafValues>
            -6.6070896387100220e-001 1.9135783612728119e-001</leafValues></_>
        <_>
          <internalNodes>
            0 -1 178 1925087931 -44236477 -93847636 1360214547 -11384
            -1874529657 -179771704 1376713674</internalNodes>
          <leafValues>
            -3.7481859326362610e-001 2.6218575239181519e-001</leafValues></_>
        <_>
          <internalNodes>
            0 -1 127 -900729017 -87066514 322065719 1567573753
            -1076119357 -18167623 457086939 -1073793057</internalNodes>
          <leafValues>
            -1.9819116592407227e-001 4.7390869259834290e-001</leafValues></_>
        <_>
          <internalNodes>
            0 -1 19 -290525462 1564104744 -216870254 1361761620 -5290482
            1607424334 -1090277882 1599033541</internalNodes>
          <leafValues>
            -5.2549576759338379e-001 1.9537036120891571e-001</leafValues></_>
        <_>
          <internalNodes>
            0 -1 197 -608436476 -1427418866 1518879752 -1025960697
            -1079318308 -1490290465 2079513037 974837215</internalNodes>
          <leafValues>
            -5.2981209754943848e-001 1.7629516124725342e-001</leafValues></_>
        <_>
          <internalNodes>
            0 -1 161 -1320488784 -103825272 64592257 1573717165
            -25132920 -654310392 386962570 -1693759269</internalNodes>
          <leafValues>
            -2.6560109853744507e-001 3.5855203866958618e-001</leafValues></_>
        <_>
          <internalNodes>
            0 -1 110 -286347465 1886892838 -1572874 -125977741
            -2097183299 -17384469 -1931202817 -1271659754</internalNodes>
          <leafValues>
            -3.4094429016113281e-001 2.7910518646240234e-001</leafValues></_>
        <_>
          <internalNodes>
            0 -1 191 -1162285094 -1930485688 1292990227 -1622678715
            780905403 149693628 137335739 -1950358565</internalNodes>
          <leafValues>
            -3.3731117844581604e-001 2.8651237487792969e-001</leafValues></_>
        <_>
          <internalNodes>
            0 -1 125 -282117356 681751475 -2015986881 -1073818886
            1334574007 -540213275 522140466 -557988110</internalNodes>
          <leafValues>
            -3.9289188385009766e-001 2.3711402714252472e-001</leafValues></_>
        <_>
          <internalNodes>
            0 -1 52 -6556677 -8656656 1058271715 -549236273 -1744969224
            -1883635525 1414938784 -775470928</internalNodes>
          <leafValues>
            -3.3231619000434875e-001 2.8523725271224976e-001</leafValues></_>
        <_>
          <internalNodes>
            0 -1 91 -596500464 -674708244 -1766901127 -749738808
            -119688449 -1731273012 1465242863 392106121</internalNodes>
          <leafValues>
            -4.5848563313484192e-001 2.1337229013442993e-001</leafValues></_>
        <_>
          <internalNodes>
            0 -1 49 -42836 -218212610 -363432393 -2328070 -10688512
            955665506 2064842342 2075017214</internalNodes>
          <leafValues>
            -4.9674290418624878e-001 1.8741840124130249e-001</leafValues></_>
        <_>
          <internalNodes>
            0 -1 167 -1732980576 -1191961292 3203075 365200629
            -1461465984 21680136 185835147 531340539</internalNodes>
          <leafValues>
            -3.8225448131561279e-001 2.4669139087200165e-001</leafValues></_>
        <_>
          <internalNodes>
            0 -1 53 -294980438 2140110753 -201330189 -1648762915
            -3319814 -537923906 -405342273 -94446131</internalNodes>
          <leafValues>
            -2.9286563396453857e-001 3.3937108516693115e-001</leafValues></_>
        <_>
          <internalNodes>
            0 -1 189 -7815368 -974913789 483915225 1366605790
            -1990197254 6892093 246213597 1367048926</internalNodes>
          <leafValues>
            -3.8799127936363220e-001 2.5608500838279724e-001</leafValues></_></weakClassifiers></_>
    <!-- stage 11 -->
    <_>
      <maxWeakCount>21</maxWeakCount>
      <stageThreshold>-3.0864467620849609e+000</stageThreshold>
      <weakClassifiers>
        <_>
          <internalNodes>
            0 -1 119 -4194305 -556869409 -69533699 -2297889 -82840623
            -22029613 -544342083 -549724673</internalNodes>
          <leafValues>
            -8.8684457540512085e-001 -5.3200840950012207e-001</leafValues></_>
        <_>
          <internalNodes>
            0 -1 10 2136997855 -1357927601 -58852611 -285215745 -16449
            -15673 -51790353 -16913473</internalNodes>
          <leafValues>
            -5.5630785226821899e-001 1.1842758953571320e-001</leafValues></_>
        <_>
          <internalNodes>
            0 -1 77 1060261870 1060310787 -218139626 -269005100
            1437891851 -3672661 2096685143 -327859115</internalNodes>
          <leafValues>
            -5.6360393762588501e-001 1.5252524614334106e-001</leafValues></_>
        <_>
          <internalNodes>
            0 -1 141 808441527 1073698783 842686335 2147425503
            -136389284 -551789272 -83165398 1293934271</internalNodes>
          <leafValues>
            -3.9607486128807068e-001 2.4760761857032776e-001</leafValues></_>
        <_>
          <internalNodes>
            0 -1 185 -1078264078 1336930760 -1256762384 -715130657
            -1141770288 1207693488 -1177551888 -1075843844</internalNodes>
          <leafValues>
            -4.2471152544021606e-001 2.5450327992439270e-001</leafValues></_>
        <_>
          <internalNodes>
            0 -1 166 -716451622 -572817216 23789667 -571752329
            -147066742 -670398464 2326778 -1693810481</internalNodes>
          <leafValues>
            -2.3131498694419861e-001 4.3071329593658447e-001</leafValues></_>
        <_>
          <internalNodes>
            0 -1 29 -287418130 -2195770 -895815070 -690072066 2146423310
            -1697977617 1972008215 -134218757</internalNodes>
          <leafValues>
            -3.8935482501983643e-001 2.4965971708297729e-001</leafValues></_>
        <_>
          <internalNodes>
            0 -1 123 1006567236 980939698 1994325947 1052966842
            -1711546883 1220144097 418323896 144572346</internalNodes>
          <leafValues>
            -5.8467876911163330e-001 1.6030226647853851e-001</leafValues></_>
        <_>
          <internalNodes>
            0 -1 116 -285220320 -14353 -535334401 1970265567 -1415960415
            -988287535 522128830 86642143</internalNodes>
          <leafValues>
            -5.2232843637466431e-001 1.7307479679584503e-001</leafValues></_>
        <_>
          <internalNodes>
            0 -1 72 2042043440 2065106992 1482254055 455020563
            1123158018 726938116 1279842847 -82101381</internalNodes>
          <leafValues>
            -4.2890635132789612e-001 2.1225757896900177e-001</leafValues></_>
        <_>
          <internalNodes>
            0 -1 36 -101263618 -269553756 -251988354 -539561986 -9579316
            -11602100 -295324498 -283124257</internalNodes>
          <leafValues>
            -2.8546947240829468e-001 3.5468229651451111e-001</leafValues></_>
        <_>
          <internalNodes>
            0 -1 113 -70070056 -74393600 705714931 1359170656 -208622936
            -1979546496 -97453349 -544534325</internalNodes>
          <leafValues>
            -2.2138914465904236e-001 4.4272363185882568e-001</leafValues></_>
        <_>
          <internalNodes>
            0 -1 203 -1903629329 767683552 13587003 -824181635 783184623
            178676458 207230687 182180607</internalNodes>
          <leafValues>
            -4.2886325716972351e-001 2.3047079145908356e-001</leafValues></_>
        <_>
          <internalNodes>
            0 -1 7 935228927 -352356355 -571583011 -810629179
            -1143144449 -1431046273 -1279993869 -534386841</internalNodes>
          <leafValues>
            -2.4648153781890869e-001 4.2469701170921326e-001</leafValues></_>
        <_>
          <internalNodes>
            0 -1 136 780090231 2147103743 2147188703 2147252156
            -26607747 -541260913 -618841100 -73868560</internalNodes>
          <leafValues>
            -3.7917581200599670e-001 2.8811159729957581e-001</leafValues></_>
        <_>
          <internalNodes>
            0 -1 70 -495628562 -227581873 -329249316 -571638233
            -212535544 861012046 -1793563656 -544243793</internalNodes>
          <leafValues>
            -3.4532934427261353e-001 2.9916259646415710e-001</leafValues></_>
        <_>
          <internalNodes>
            0 -1 192 1729822760 -832634226 -255525636 -1061936642
            -883387144 -2096571487 1271519724 1528561112</internalNodes>
          <leafValues>
            -5.2058708667755127e-001 1.9380959868431091e-001</leafValues></_>
        <_>
          <internalNodes>
            0 -1 3 -1436120438 1918360841 -1090063119 -14688903
            1399301051 -93070371 938927602 870795705</internalNodes>
          <leafValues>
            -5.4619479179382324e-001 1.6798827052116394e-001</leafValues></_>
        <_>
          <internalNodes>
            0 -1 163 78516157 1272920859 -745350725 501005279 -20673
            -351588830 -469962656 1559818482</internalNodes>
          <leafValues>
            -4.3527978658676147e-001 2.0081770420074463e-001</leafValues></_>
        <_>
          <internalNodes>
            0 -1 46 -1441771700 1044112717 266792956 241059925
            1751731284 514908564 -1162416396 -89067171</internalNodes>
          <leafValues>
            -4.9694636464118958e-001 1.7713980376720428e-001</leafValues></_>
        <_>
          <internalNodes>
            0 -1 82 -537663486 -115759422 575144038 -746229180
            -485646790 1107574784 1912732364 1931078859</internalNodes>
          <leafValues>
            -3.2911494374275208e-001 2.8442424535751343e-001</leafValues></_></weakClassifiers></_>
    <!-- stage 12 -->
    <_>
      <maxWeakCount>22</maxWeakCount>
      <stageThreshold>-2.7768092155456543e+000</stageThreshold>
      <weakClassifiers>
        <_>
          <internalNodes>
            0 -1 111 -72091397 -8421128 -776244769 -604023393 -341646662
            -341067071 -1692664897 -9313</internalNodes>
          <leafValues>
            -8.7491041421890259e-001 -3.7039205431938171e-001</leafValues></_>
        <_>
          <internalNodes>
            0 -1 190 -402676737 -604560417 500354527 1365175582
            -570426881 -822232920 -604111873 -538969090</internalNodes>
          <leafValues>
            -5.2653425931930542e-001 1.8367519974708557e-001</leafValues></_>
        <_>
          <internalNodes>
            0 -1 98 2003002860 -1075838977 -216868041 -373307137
            -875888211 -1075166946 -214500567 -330894777</internalNodes>
          <leafValues>
            -5.1352512836456299e-001 1.7868225276470184e-001</leafValues></_>
        <_>
          <internalNodes>
            0 -1 152 -590495546 -673359393 1082186782 1364705119
            -82052400 -794457960 -217318472 330000127</internalNodes>
          <leafValues>
            -3.9334517717361450e-001 2.4578398466110229e-001</leafValues></_>
        <_>
          <internalNodes>
            0 -1 171 -1212481544 -808983896 -1086063623 -44042759
            -1143212368 1324338152 -84675880 -1090524422</internalNodes>
          <leafValues>
            -3.3750590682029724e-001 3.0030950903892517e-001</leafValues></_>
        <_>
          <internalNodes>
            0 -1 24 1818103646 1582165327 527912702 1263365839
            1849178243 -623058693 136281150 -352525753</internalNodes>
          <leafValues>
            -4.8028549551963806e-001 2.1373003721237183e-001</leafValues></_>
        <_>
          <internalNodes>
            0 -1 31 -548447012 -220316450 -1803660546 -539067658
            1392695370 1988095034 72072126 -32769</internalNodes>
          <leafValues>
            -4.1715654730796814e-001 2.4154981970787048e-001</leafValues></_>
        <_>
          <internalNodes>
            0 -1 194 -2363384 -1024752661 -803487713 -2033196822
            1535279310 1262717835 -224333093 260767375</internalNodes>
          <leafValues>
            -4.3470898270606995e-001 2.2871327400207520e-001</leafValues></_>
        <_>
          <internalNodes>
            0 -1 86 -1364588536 -41043439 -213788175 -550505089
            -1154745937 -391395143 -419241309 -1827618216</internalNodes>
          <leafValues>
            -4.6906128525733948e-001 2.0045062899589539e-001</leafValues></_>
        <_>
          <internalNodes>
            0 -1 106 -571520822 1964638752 1343395846 1392582672
            -544685920 788668416 1241571835 2065387983</internalNodes>
          <leafValues>
            -3.3616372942924500e-001 2.8710660338401794e-001</leafValues></_>
        <_>
          <internalNodes>
            0 -1 34 -1617489632 2096824322 269046853 -71357425 50348032
            1244012545 1208122951 -539232741</internalNodes>
          <leafValues>
            -4.2577227950096130e-001 2.2411459684371948e-001</leafValues></_>
        <_>
          <internalNodes>
            0 -1 40 870299414 -1437431917 -709364235 -279000392
            -1080313065 -1885765088 270930897 -809174191</internalNodes>
          <leafValues>
            -3.8735851645469666e-001 2.5238719582557678e-001</leafValues></_>
        <_>
          <internalNodes>
            0 -1 137 -353243064 -206733172 1295271935 1359036600
            -1709670264 -795160852 438875842 -1147193345</internalNodes>
          <leafValues>
            -2.4780139327049255e-001 3.9416381716728210e-001</leafValues></_>
        <_>
          <internalNodes>
            0 -1 52 -208408072 -74481656 324245970 -49601905 -209639947
            -808943478 2019972112 -917880784</internalNodes>
          <leafValues>
            -3.8966912031173706e-001 2.4986147880554199e-001</leafValues></_>
        <_>
          <internalNodes>
            0 -1 165 -241435216 -215035074 1972984743 2136439390
            -216337647 1173159454 1628500920 169641694</internalNodes>
          <leafValues>
            -4.9453851580619812e-001 1.9129452109336853e-001</leafValues></_>
        <_>
          <internalNodes>
            0 -1 153 246038071 1073641047 -1674259073 777417547
            -86000643 -407206145 422231024 -1439645704</internalNodes>
          <leafValues>
            -4.2536640167236328e-001 2.1576315164566040e-001</leafValues></_>
        <_>
          <internalNodes>
            0 -1 182 -1041120054 -607675686 1074086144 -772936502
            -254496344 12586184 1397680842 -674236021</internalNodes>
          <leafValues>
            -2.2591781616210938e-001 4.2273646593093872e-001</leafValues></_>
        <_>
          <internalNodes>
            0 -1 199 -1162086208 -834183103 672268370 1851252865
            880860136 -1306539736 1058413640 22215679</internalNodes>
          <leafValues>
            -5.1701968908309937e-001 1.8678011000156403e-001</leafValues></_>
        <_>
          <internalNodes>
            0 -1 145 956831484 -549690828 388187604 1932537930
            -1681876486 770179106 319409068 -150808</internalNodes>
          <leafValues>
            -4.6640959382057190e-001 1.9762293994426727e-001</leafValues></_>
        <_>
          <internalNodes>
            0 -1 120 -766383949 -975894381 67329709 1431765085
            -1476351944 -2009063264 453025659 255535259</internalNodes>
          <leafValues>
            -3.2059672474861145e-001 3.2077935338020325e-001</leafValues></_>
        <_>
          <internalNodes>
            0 -1 65 -1460371236 -9473171 1971784703 2071688728
            -2004901029 1108345347 1077133756 387625914</internalNodes>
          <leafValues>
            -4.7891783714294434e-001 2.0984126627445221e-001</leafValues></_>
        <_>
          <internalNodes>
            0 -1 92 -956308297 -615042741 1312501147 -616611905
            -718488644 1719356934 -1051146551 -67129093</internalNodes>
          <leafValues>
            -1.9198547303676605e-001 5.1407450437545776e-001</leafValues></_></weakClassifiers></_>
    <!-- stage 13 -->
    <_>
      <maxWeakCount>24</maxWeakCount>
      <stageThreshold>-2.6835892200469971e+000</stageThreshold>
      <weakClassifiers>
        <_>
          <internalNodes>
            0 -1 105 -134217729 -278305 -750133281 -2105857 -87057409
            -24131442 -95683589 -1025</internalNodes>
          <leafValues>
            -8.5891377925872803e-001 3.8497111201286316e-001</leafValues></_>
        <_>
          <internalNodes>
            0 -1 80 2147186559 1061157651 -973659881 -268454917
            1998572191 -15232869 -160433681 -354038791</internalNodes>
          <leafValues>
            -5.2996861934661865e-001 1.8175472319126129e-001</leafValues></_>
        <_>
          <internalNodes>
            0 -1 130 1573355519 1608982527 -1158610957 -1120665601
            -1879106805 -272662738 -604963998 -287244634</internalNodes>
          <leafValues>
            -2.9101192951202393e-001 3.8379061222076416e-001</leafValues></_>
        <_>
          <internalNodes>
            0 -1 122 -1359073483 -824280116 437451736 317520333
            -103879564 -90535781 -214900031 -630758845</internalNodes>
          <leafValues>
            -4.5901885628700256e-001 2.2923038899898529e-001</leafValues></_>
        <_>
          <internalNodes>
            0 -1 134 -671035376 -753219344 111478075 -708542384
            -226317126 -1046327720 -1442780513 -1623516213</internalNodes>
          <leafValues>
            -2.5855880975723267e-001 3.8400486111640930e-001</leafValues></_>
        <_>
          <internalNodes>
            0 -1 173 2132530198 326337331 -21904196 274846475
            -1693529970 -1679783886 -623993893 923937595</internalNodes>
          <leafValues>
            -4.3795654177665710e-001 2.5596481561660767e-001</leafValues></_>
        <_>
          <internalNodes>
            0 -1 85 427169274 -1219956539 1568722398 1606209943
            947714646 620992603 67417242 259255263</internalNodes>
          <leafValues>
            -4.8194044828414917e-001 1.8611879646778107e-001</leafValues></_>
        <_>
          <internalNodes>
            0 -1 99 -88163427 -38131789 1073725438 -837648 1824427391
            -436371585 668958455 -994767596</internalNodes>
          <leafValues>
            -2.9357242584228516e-001 3.3734014630317688e-001</leafValues></_>
        <_>
          <internalNodes>
            0 -1 67 600658263 683868229 -968276174 1073698580 67453755
            1277165668 1313802035 -286468107</internalNodes>
          <leafValues>
            -3.7457901239395142e-001 2.6962882280349731e-001</leafValues></_>
        <_>
          <internalNodes>
            0 -1 108 -675546244 -537214778 -788310612 459805138
            816832753 319260892 306355112 991633055</internalNodes>
          <leafValues>
            -5.2348810434341431e-001 1.9021442532539368e-001</leafValues></_>
        <_>
          <internalNodes>
            0 -1 61 1396440951 597880747 -1048585 -1429929985 2146912167
            -1968279641 -1073863307 -1945541368</internalNodes>
          <leafValues>
            -2.8234511613845825e-001 3.6808183789253235e-001</leafValues></_>
        <_>
          <internalNodes>
            0 -1 0 -1078734087 -7645536 1359405970 1569167013 -662372325
            -1903984437 53035360 -992001851</internalNodes>
          <leafValues>
            -4.0912157297134399e-001 2.4266180396080017e-001</leafValues></_>
        <_>
          <internalNodes>
            0 -1 8 327306476 495579605 1367900205 -2144763744 -82191429
            855732242 1505792363 1074155602</internalNodes>
          <leafValues>
            -6.5145671367645264e-001 1.4888796210289001e-001</leafValues></_>
        <_>
          <internalNodes>
            0 -1 202 -1216158998 213992064 16995024 1174622533 216573871
            270557577 607067 459266447</internalNodes>
          <leafValues>
            -4.8068866133689880e-001 2.0002047717571259e-001</leafValues></_>
        <_>
          <internalNodes>
            0 -1 139 -334807040 -653537100 -2134640173 -803552305
            -813634904 -1416965885 439005659 452777181</internalNodes>
          <leafValues>
            -5.3180766105651855e-001 1.8860188126564026e-001</leafValues></_>
        <_>
          <internalNodes>
            0 -1 169 2038162066 -641490815 321339843 -739817043
            -1682406710 302317696 168033230 -748687669</internalNodes>
          <leafValues>
            -2.1749337017536163e-001 4.8324912786483765e-001</leafValues></_>
        <_>
          <internalNodes>
            0 -1 23 -799635506 265077391 -937974778 -2099494689
            -1300012151 -555974527 -492986172 -86482432</internalNodes>
          <leafValues>
            -4.8592770099639893e-001 2.1480153501033783e-001</leafValues></_>
        <_>
          <internalNodes>
            0 -1 162 -1874558927 -799227896 16777361 1506021764
            -1199468078 -636837888 285579483 529465535</internalNodes>
          <leafValues>
            -3.4713423252105713e-001 2.8594949841499329e-001</leafValues></_>
        <_>
          <internalNodes>
            0 -1 63 2059115067 -72089985 -109773637 -82248148
            -1519872337 -385690501 1353462 -547694056</internalNodes>
          <leafValues>
            -2.4191994965076447e-001 4.3247488141059875e-001</leafValues></_>
        <_>
          <internalNodes>
            0 -1 18 -366287126 -1020379104 1090633760 -1021143007
            -1148212734 -14678015 -40916176 1934315872</internalNodes>
          <leafValues>
            -5.8931475877761841e-001 1.8383605778217316e-001</leafValues></_>
        <_>
          <internalNodes>
            0 -1 151 -249904142 -648379712 -1004481949 -552482565
            -1660708800 -870703214 1907462344 -1626207089</internalNodes>
          <leafValues>
            -3.1919500231742859e-001 3.2953178882598877e-001</leafValues></_>
        <_>
          <internalNodes>
            0 -1 135 -874601982 709862755 -1583312148 1242214798
            -1414549059 805538432 162465964 -1498756102</internalNodes>
          <leafValues>
            -4.7486874461174011e-001 2.2290030121803284e-001</leafValues></_>
        <_>
          <internalNodes>
            0 -1 149 538922676 1141726669 -1056390865 2139885789
            -777394536 -1201091571 -649409607 1431294940</internalNodes>
          <leafValues>
            -4.2742019891738892e-001 2.3399488627910614e-001</leafValues></_>
        <_>
          <internalNodes>
            0 -1 118 -120597968 -16189414 1412761941 -340946886
            -669267904 -157381404 -820918115 -586448599</internalNodes>
          <leafValues>
            -2.7108046412467957e-001 3.8034969568252563e-001</leafValues></_></weakClassifiers></_></stages>
  <features>
    <_>
      <rect>
        0 0 1 2</rect></_>
    <_>
      <rect>
        0 0 2 1</rect></_>
    <_>
      <rect>
        0 0 2 2</rect></_>
    <_>
      <rect>
        0 0 2 3</rect></_>
    <_>
      <rect>
        0 0 4 2</rect></_>
    <_>
      <rect>
        0 0 5 1</rect></_>
    <_>
      <rect>
        0 0 5 5</rect></_>
    <_>
      <rect>
        0 0 6 4</rect></_>
    <_>
      <rect>
        0 0 6 5</rect></_>
    <_>
      <rect>
        0 1 2 2</rect></_>
    <_>
      <rect>
        0 1 4 6</rect></_>
    <_>
      <rect>
        0 1 5 4</rect></_>
    <_>
      <rect>
        0 1 5 6</rect></_>
    <_>
      <rect>
        0 2 1 1</rect></_>
    <_>
      <rect>
        0 2 1 4</rect></_>
    <_>
      <rect>
        0 2 2 5</rect></_>
    <_>
      <rect>
        0 3 1 2</rect></_>
    <_>
      <rect>
        0 3 2 4</rect></_>
    <_>
      <rect>
        0 4 1 2</rect></_>
    <_>
      <rect>
        0 4 1 3</rect></_>
    <_>
      <rect>
        0 4 2 4</rect></_>
    <_>
      <rect>
        0 4 4 5</rect></_>
    <_>
      <rect>
        0 5 2 4</rect></_>
    <_>
      <rect>
        0 5 4 5</rect></_>
    <_>
      <rect>
        0 5 5 5</rect></_>
    <_>
      <rect>
        0 6 1 3</rect></_>
    <_>
      <rect>
        0 7 1 3</rect></_>
    <_>
      <rect>
        0 8 1 1</rect></_>
    <_>
      <rect>
        0 9 1 3</rect></_>
    <_>
      <rect>
        0 10 1 2</rect></_>
    <_>
      <rect>
        0 11 3 3</rect></_>
    <_>
      <rect>
        0 13 2 2</rect></_>
    <_>
      <rect>
        0 14 2 2</rect></_>
    <_>
      <rect>
        0 15 1 1</rect></_>
    <_>
      <rect>
        0 16 1 1</rect></_>
    <_>
      <rect>
        0 17 2 1</rect></_>
    <_>
      <rect>
        0 17 5 1</rect></_>
    <_>
      <rect>
        1 0 2 2</rect></_>
    <_>
      <rect>
        1 0 6 5</rect></_>
    <_>
      <rect>
        1 1 2 2</rect></_>
    <_>
      <rect>
        1 1 4 4</rect></_>
    <_>
      <rect>
        1 1 5 5</rect></_>
    <_>
      <rect>
        1 1 6 6</rect></_>
    <_>
      <rect>
        1 2 6 3</rect></_>
    <_>
      <rect>
        1 4 1 3</rect></_>
    <_>
      <rect>
        1 7 4 4</rect></_>
    <_>
      <rect>
        1 8 5 4</rect></_>
    <_>
      <rect>
        1 10 6 2</rect></_>
    <_>
      <rect>
        1 11 6 2</rect></_>
    <_>
      <rect>
        1 12 1 2</rect></_>
    <_>
      <rect>
        1 14 2 2</rect></_>
    <_>
      <rect>
        1 14 5 2</rect></_>
    <_>
      <rect>
        2 0 1 1</rect></_>
    <_>
      <rect>
        2 0 3 1</rect></_>
    <_>
      <rect>
        2 0 4 2</rect></_>
    <_>
      <rect>
        2 0 5 2</rect></_>
    <_>
      <rect>
        2 0 6 4</rect></_>
    <_>
      <rect>
        2 0 6 6</rect></_>
    <_>
      <rect>
        2 1 1 2</rect></_>
    <_>
      <rect>
        2 1 2 6</rect></_>
    <_>
      <rect>
        2 1 3 5</rect></_>
    <_>
      <rect>
        2 3 5 2</rect></_>
    <_>
      <rect>
        2 4 5 4</rect></_>
    <_>
      <rect>
        2 6 1 2</rect></_>
    <_>
      <rect>
        2 7 1 2</rect></_>
    <_>
      <rect>
        2 7 1 3</rect></_>
    <_>
      <rect>
        2 8 6 4</rect></_>
    <_>
      <rect>
        2 9 6 3</rect></_>
    <_>
      <rect>
        2 10 3 3</rect></_>
    <_>
      <rect>
        2 13 1 2</rect></_>
    <_>
      <rect>
        2 14 2 1</rect></_>
    <_>
      <rect>
        2 14 5 2</rect></_>
    <_>
      <rect>
        2 17 1 1</rect></_>
    <_>
      <rect>
        2 17 3 1</rect></_>
    <_>
      <rect>
        3 0 2 1</rect></_>
    <_>
      <rect>
        3 0 2 6</rect></_>
    <_>
      <rect>
        3 1 1 3</rect></_>
    <_>
      <rect>
        3 1 3 6</rect></_>
    <_>
      <rect>
        3 2 5 5</rect></_>
    <_>
      <rect>
        3 3 2 1</rect></_>
    <_>
      <rect>
        3 3 2 5</rect></_>
    <_>
      <rect>
        3 5 3 3</rect></_>
    <_>
      <rect>
        3 10 1 1</rect></_>
    <_>
      <rect>
        3 10 1 3</rect></_>
    <_>
      <rect>
        3 14 2 1</rect></_>
    <_>
      <rect>
        3 17 3 1</rect></_>
    <_>
      <rect>
        4 0 2 1</rect></_>
    <_>
      <rect>
        4 0 3 1</rect></_>
    <_>
      <rect>
        4 0 4 1</rect></_>
    <_>
      <rect>
        4 0 4 2</rect></_>
    <_>
      <rect>
        4 0 5 2</rect></_>
    <_>
      <rect>
        4 2 1 2</rect></_>
    <_>
      <rect>
        4 14 1 1</rect></_>
    <_>
      <rect>
        4 14 5 2</rect></_>
    <_>
      <rect>
        4 17 2 1</rect></_>
    <_>
      <rect>
        4 17 3 1</rect></_>
    <_>
      <rect>
        4 17 4 1</rect></_>
    <_>
      <rect>
        5 0 3 5</rect></_>
    <_>
      <rect>
        5 0 5 5</rect></_>
    <_>
      <rect>
        5 2 2 4</rect></_>
    <_>
      <rect>
        5 2 5 4</rect></_>
    <_>
      <rect>
        5 3 1 1</rect></_>
    <_>
      <rect>
        5 5 2 4</rect></_>
    <_>
      <rect>
        5 5 5 5</rect></_>
    <_>
      <rect>
        5 7 5 4</rect></_>
    <_>
      <rect>
        5 12 1 1</rect></_>
    <_>
      <rect>
        5 13 1 1</rect></_>
    <_>
      <rect>
        5 14 3 2</rect></_>
    <_>
      <rect>
        5 14 5 2</rect></_>
    <_>
      <rect>
        6 2 3 4</rect></_>
    <_>
      <rect>
        6 3 3 3</rect></_>
    <_>
      <rect>
        6 4 1 1</rect></_>
    <_>
      <rect>
        6 8 3 3</rect></_>
    <_>
      <rect>
        6 13 1 1</rect></_>
    <_>
      <rect>
        7 0 2 1</rect></_>
    <_>
      <rect>
        7 0 3 1</rect></_>
    <_>
      <rect>
        7 0 4 2</rect></_>
    <_>
      <rect>
        7 1 4 4</rect></_>
    <_>
      <rect>
        7 2 1 1</rect></_>
    <_>
      <rect>
        7 2 2 1</rect></_>
    <_>
      <rect>
        7 4 2 1</rect></_>
    <_>
      <rect>
        7 5 4 5</rect></_>
    <_>
      <rect>
        7 6 2 2</rect></_>
    <_>
      <rect>
        7 6 3 4</rect></_>
    <_>
      <rect>
        7 7 2 2</rect></_>
    <_>
      <rect>
        7 7 4 4</rect></_>
    <_>
      <rect>
        7 14 2 1</rect></_>
    <_>
      <rect>
        7 15 2 1</rect></_>
    <_>
      <rect>
        7 17 3 1</rect></_>
    <_>
      <rect>
        8 0 3 1</rect></_>
    <_>
      <rect>
        8 0 4 6</rect></_>
    <_>
      <rect>
        8 1 3 6</rect></_>
    <_>
      <rect>
        8 1 4 6</rect></_>
    <_>
      <rect>
        8 2 4 6</rect></_>
    <_>
      <rect>
        8 3 1 1</rect></_>
    <_>
      <rect>
        8 6 3 3</rect></_>
    <_>
      <rect>
        8 7 1 2</rect></_>
    <_>
      <rect>
        8 14 1 1</rect></_>
    <_>
      <rect>
        8 14 4 1</rect></_>
    <_>
      <rect>
        9 0 2 1</rect></_>
    <_>
      <rect>
        9 0 3 4</rect></_>
    <_>
      <rect>
        9 1 3 3</rect></_>
    <_>
      <rect>
        9 1 3 6</rect></_>
    <_>
      <rect>
        9 5 2 4</rect></_>
    <_>
      <rect>
        9 8 3 4</rect></_>
    <_>
      <rect>
        9 17 1 1</rect></_>
    <_>
      <rect>
        9 17 3 1</rect></_>
    <_>
      <rect>
        10 0 2 1</rect></_>
    <_>
      <rect>
        10 0 3 2</rect></_>
    <_>
      <rect>
        10 0 3 4</rect></_>
    <_>
      <rect>
        10 1 3 6</rect></_>
    <_>
      <rect>
        10 2 1 1</rect></_>
    <_>
      <rect>
        10 3 3 1</rect></_>
    <_>
      <rect>
        10 7 1 2</rect></_>
    <_>
      <rect>
        10 14 3 2</rect></_>
    <_>
      <rect>
        10 17 2 1</rect></_>
    <_>
      <rect>
        11 0 2 1</rect></_>
    <_>
      <rect>
        11 0 2 3</rect></_>
    <_>
      <rect>
        11 0 3 2</rect></_>
    <_>
      <rect>
        11 1 2 6</rect></_>
    <_>
      <rect>
        11 11 3 3</rect></_>
    <_>
      <rect>
        11 13 1 1</rect></_>
    <_>
      <rect>
        11 14 1 1</rect></_>
    <_>
      <rect>
        12 1 2 6</rect></_>
    <_>
      <rect>
        12 5 1 1</rect></_>
    <_>
      <rect>
        12 10 2 3</rect></_>
    <_>
      <rect>
        12 12 1 1</rect></_>
    <_>
      <rect>
        12 14 1 1</rect></_>
    <_>
      <rect>
        13 1 2 2</rect></_>
    <_>
      <rect>
        13 6 1 1</rect></_>
    <_>
      <rect>
        13 13 2 2</rect></_>
    <_>
      <rect>
        13 14 2 2</rect></_>
    <_>
      <rect>
        14 0 2 1</rect></_>
    <_>
      <rect>
        14 0 2 2</rect></_>
    <_>
      <rect>
        14 1 1 3</rect></_>
    <_>
      <rect>
        14 1 2 2</rect></_>
    <_>
      <rect>
        14 1 2 3</rect></_>
    <_>
      <rect>
        14 3 2 5</rect></_>
    <_>
      <rect>
        14 4 1 2</rect></_>
    <_>
      <rect>
        14 4 2 3</rect></_>
    <_>
      <rect>
        14 4 2 4</rect></_>
    <_>
      <rect>
        14 7 2 3</rect></_>
    <_>
      <rect>
        14 9 1 1</rect></_>
    <_>
      <rect>
        14 10 2 3</rect></_>
    <_>
      <rect>
        14 11 1 2</rect></_>
    <_>
      <rect>
        14 13 2 2</rect></_>
    <_>
      <rect>
        14 14 2 2</rect></_>
    <_>
      <rect>
        14 17 2 1</rect></_>
    <_>
      <rect>
        15 0 1 1</rect></_>
    <_>
      <rect>
        15 6 1 4</rect></_>
    <_>
      <rect>
        15 7 1 2</rect></_>
    <_>
      <rect>
        15 17 1 1</rect></_>
    <_>
      <rect>
        16 6 1 2</rect></_>
    <_>
      <rect>
        17 0 1 2</rect></_>
    <_>
      <rect>
        17 1 1 4</rect></_>
    <_>
      <rect>
        17 2 1 4</rect></_>
    <_>
      <rect>
        17 3 1 2</rect></_>
    <_>
      <rect>
        17 5 1 3</rect></_>
    <_>
      <rect>
        17 6 1 3</rect></_>
    <_>
      <rect>
        17 6 1 4</rect></_>
    <_>
      <rect>
        17 8 1 3</rect></_>
    <_>
      <rect>
        17 11 1 2</rect></_>
    <_>
      <rect>
        17 13 1 2</rect></_>
    <_>
      <rect>
        17 14 1 2</rect></_>
    <_>
      <rect>
        17 15 1 1</rect></_></features></cascade>
</opencv_storage>
